<?xml version="1.0"?>
<opencv_storage>
<cascade>
  <stageType>BOOST</stageType>
  <featureType>HAAR</featureType>
  <height>50</height>
  <width>50</width>
  <stageParams>
    <boostType>GAB</boostType>
    <minHitRate>9.9500000476837158e-01</minHitRate>
    <maxFalseAlarm>5.0000000000000000e-01</maxFalseAlarm>
    <weightTrimRate>9.4999999999999996e-01</weightTrimRate>
    <maxDepth>1</maxDepth>
    <maxWeakCount>100</maxWeakCount></stageParams>
  <featureParams>
    <maxCatCount>0</maxCatCount>
    <featSize>1</featSize>
    <mode>BASIC</mode></featureParams>
  <stageNum>5</stageNum>
  <stages>
    <!-- stage 0 -->
    <_>
      <maxWeakCount>3</maxWeakCount>
      <stageThreshold>-1.0309507846832275e+00</stageThreshold>
      <weakClassifiers>
        <_>
          <internalNodes>
            0 -1 1 1.8829960376024246e-02</internalNodes>
          <leafValues>
            -9.4313567876815796e-01 9.8294240236282349e-01</leafValues></_>
        <_>
          <internalNodes>
            0 -1 14 -5.0348290242254734e-03</internalNodes>
          <leafValues>
            9.5588266849517822e-01 -9.0998756885528564e-01</leafValues></_>
        <_>
          <internalNodes>
            0 -1 9 -1.4037592336535454e-02</internalNodes>
          <leafValues>
            8.2217246294021606e-01 -8.7094962596893311e-01</leafValues></_></weakClassifiers></_>
    <!-- stage 1 -->
    <_>
      <maxWeakCount>3</maxWeakCount>
      <stageThreshold>-1.0500230789184570e+00</stageThreshold>
      <weakClassifiers>
        <_>
          <internalNodes>
            0 -1 2 1.0200389660894871e-02</internalNodes>
          <leafValues>
            -9.0968799591064453e-01 8.4647303819656372e-01</leafValues></_>
        <_>
          <internalNodes>
            0 -1 3 -8.3152115345001221e-02</internalNodes>
          <leafValues>
            7.3384416103363037e-01 -8.8833290338516235e-01</leafValues></_>
        <_>
          <internalNodes>
            0 -1 13 -8.9858155697584152e-03</internalNodes>
          <leafValues>
            7.4799782037734985e-01 -8.5710304975509644e-01</leafValues></_></weakClassifiers></_>
    <!-- stage 2 -->
    <_>
      <maxWeakCount>3</maxWeakCount>
      <stageThreshold>-1.1589764356613159e+00</stageThreshold>
      <weakClassifiers>
        <_>
          <internalNodes>
            0 -1 0 -3.8691096007823944e-02</internalNodes>
          <leafValues>
            -9.0008324384689331e-01 7.6352703571319580e-01</leafValues></_>
        <_>
          <internalNodes>
            0 -1 12 -7.5746029615402222e-03</internalNodes>
          <leafValues>
            6.8531286716461182e-01 -8.7397295236587524e-01</leafValues></_>
        <_>
          <internalNodes>
            0 -1 8 8.3061996847391129e-03</internalNodes>
          <leafValues>
            -8.3897942304611206e-01 6.1507982015609741e-01</leafValues></_></weakClassifiers></_>
    <!-- stage 3 -->
    <_>
      <maxWeakCount>3</maxWeakCount>
      <stageThreshold>-9.9836444854736328e-01</stageThreshold>
      <weakClassifiers>
        <_>
          <internalNodes>
            0 -1 7 -5.7337023317813873e-03</internalNodes>
          <leafValues>
            8.9976131916046143e-01 -8.4074944257736206e-01</leafValues></_>
        <_>
          <internalNodes>
            0 -1 5 4.4249421916902065e-03</internalNodes>
          <leafValues>
            -8.5111480951309204e-01 6.7052835226058960e-01</leafValues></_>
        <_>
          <internalNodes>
            0 -1 11 -1.0000968351960182e-02</internalNodes>
          <leafValues>
            6.9349974393844604e-01 -8.1439441442489624e-01</leafValues></_></weakClassifiers></_>
    <!-- stage 4 -->
    <_>
      <maxWeakCount>3</maxWeakCount>
      <stageThreshold>-1.0364905595779419e+00</stageThreshold>
      <weakClassifiers>
        <_>
          <internalNodes>
            0 -1 6 -3.1265991274267435e-03</internalNodes>
          <leafValues>
            7.4840086698532104e-01 -8.5377740859985352e-01</leafValues></_>
        <_>
          <internalNodes>
            0 -1 10 -1.2436104007065296e-02</internalNodes>
          <leafValues>
            -8.9310479164123535e-01 6.3382321596145630e-01</leafValues></_>
        <_>
          <internalNodes>
            0 -1 4 9.8829483613371849e-04</internalNodes>
          <leafValues>
            -7.8279221057891846e-01 7.1039170026779175e-01</leafValues></_></weakClassifiers></_></stages>
  <features>
    <_>
      <rects>
        <_>
          0 1 6 48 -1.</_>
        <_>
          2 1 2 48 2.</_></rects>
      <tilted>0</tilted></_>
    <_>
      <rects>
        <_>
          0 9 4 34 -1.</_>
        <_>
          2 9 2 34 2.</_></rects>
      <tilted>0</tilted></_>
    <_>
      <rects>
        <_>
          1 8 2 33 -1.</_>
        <_>
          2 8 1 33 2.</_></rects>
      <tilted>0</tilted></_>
    <_>
      <rects>
        <_>
          3 34 44 16 -1.</_>
        <_>
          3 42 44 8 2.</_></rects>
      <tilted>0</tilted></_>
    <_>
      <rects>
        <_>
          4 2 1 8 -1.</_>
        <_>
          4 6 1 4 2.</_></rects>
      <tilted>0</tilted></_>
    <_>
      <rects>
        <_>
          5 8 4 17 -1.</_>
        <_>
          7 8 2 17 2.</_></rects>
      <tilted>0</tilted></_>
    <_>
      <rects>
        <_>
          9 10 2 14 -1.</_>
        <_>
          10 10 1 14 2.</_></rects>
      <tilted>0</tilted></_>
    <_>
      <rects>
        <_>
          13 17 2 23 -1.</_>
        <_>
          14 17 1 23 2.</_></rects>
      <tilted>0</tilted></_>
    <_>
      <rects>
        <_>
          14 2 8 19 -1.</_>
        <_>
          18 2 4 19 2.</_></rects>
      <tilted>0</tilted></_>
    <_>
      <rects>
        <_>
          18 2 6 40 -1.</_>
        <_>
          21 2 3 40 2.</_></rects>
      <tilted>0</tilted></_>
    <_>
      <rects>
        <_>
          18 47 30 3 -1.</_>
        <_>
          18 48 30 1 2.</_></rects>
      <tilted>0</tilted></_>
    <_>
      <rects>
        <_>
          36 2 6 29 -1.</_>
        <_>
          39 2 3 29 2.</_></rects>
      <tilted>0</tilted></_>
    <_>
      <rects>
        <_>
          36 16 1 34 -1.</_>
        <_>
          36 33 1 17 2.</_></rects>
      <tilted>0</tilted></_>
    <_>
      <rects>
        <_>
          48 0 2 45 -1.</_>
        <_>
          49 0 1 45 2.</_></rects>
      <tilted>0</tilted></_>
    <_>
      <rects>
        <_>
          48 2 2 28 -1.</_>
        <_>
          49 2 1 28 2.</_></rects>
      <tilted>0</tilted></_></features></cascade>
</opencv_storage>
